{
  "feature_names": [
    "base_lap_time",
    "pit_lane_time",
    "track_temp",
    "total_laps",
    "start_soft",
    "start_medium",
    "start_hard",
    "pit_count",
    "laps_soft",
    "laps_medium",
    "laps_hard",
    "age_sum_soft",
    "age_sum_medium",
    "age_sum_hard",
    "age_sq_sum_soft",
    "age_sq_sum_medium",
    "age_sq_sum_hard",
    "last_soft",
    "last_medium",
    "last_hard",
    "stint_count",
    "driver_D001",
    "driver_D002",
    "driver_D003",
    "driver_D004",
    "driver_D005",
    "driver_D006",
    "driver_D007",
    "driver_D008",
    "driver_D009",
    "driver_D010",
    "driver_D011",
    "driver_D012",
    "driver_D013",
    "driver_D014",
    "driver_D015",
    "driver_D016",
    "driver_D017",
    "driver_D018",
    "driver_D019",
    "driver_D020"
  ],
  "global_weights": [
    0.0,
    0.0,
    0.0,
    0.0,
    -0.06323783118697807,
    -0.17010276685765358,
    0.2333405980446207,
    -0.0022568473960521552,
    0.5677571779813103,
    -0.47069898618719136,
    -0.09705819179411768,
    1.536468190065382,
    -0.986462675662866,
    -0.5952630448464376,
    -4.578434040474752,
    -1.2971541709164882,
    -0.755637156882668,
    0.1592827346831296,
    0.08695758559036142,
    -0.24624032027349857,
    -0.0022568473960521552,
    2.618164765764134,
    2.2512405658974854,
    1.9687936895555735,
    1.5795995602117234,
    1.3445213056405696,
    1.043710679605631,
    0.828852534927646,
    0.7097795117830408,
    0.2936721457947684,
    0.09607654112310196,
    -0.1133578598494386,
    -0.2978822804307585,
    -0.555160561541113,
    -0.88311607455119,
    -1.0842582550732691,
    -1.3665235604017183,
    -1.6251899868012762,
    -1.9788844181972105,
    -2.2581602459399,
    -2.5718780575175972
  ],
  "regimes": {
    "temp_low|laps_long|pit_low": {
      "weights": [
        0.0,
        0.0,
        0.0,
        0.0,
        -0.08562271617447521,
        -0.1755938083627095,
        0.26121652453717487,
        -0.0019408854208614002,
        -0.007521080348947879,
        0.03822512647201836,
        -0.03070404612306985,
        -0.3370458128898988,
        0.3679366709924534,
        -0.02268773076562009,
        -10.232794676669934,
        -2.6523494886129386,
        -0.968279000810873,
        0.09629992218923339,
        0.17708250484230958,
        -0.27338242703154264,
        -0.0019408854208614002,
        1.1995761756838959,
        1.1265959832480226,
        0.9177438244304228,
        0.696915704989205,
        0.5971943541608744,
        0.6585523241316205,
        0.7064912593114119,
        0.29923954309529227,
        0.22972896475403798,
        -0.02396498873898208,
        -0.030707404728848718,
        -0.13788993572165517,
        -0.3605856616565912,
        -0.422305774333308,
        -0.6662370985456192,
        -0.6547452828386147,
        -0.8100957588070252,
        -0.9260917117113265,
        -1.0150718402432928,
        -1.3843426764795481
      ],
      "race_count": 9171
    },
    "temp_mid|laps_short|pit_low": {
      "weights": [
        0.0,
        0.0,
        0.0,
        0.0,
        -0.14835765408052662,
        -0.2543711175196668,
        0.40272877160018616,
        -0.0005161589764557986,
        0.7933761427755485,
        -0.7156991314294351,
        -0.07767701134611608,
        2.137219743150587,
        -1.748603508263172,
        -0.5063266155266892,
        -2.528466021578421,
        -0.8269439223311245,
        -0.9278357806023689,
        0.29253636117335924,
        0.11455516274491874,
        -0.4070915239183115,
        -0.0005161589764557986,
        3.0652459790500743,
        2.620114125493711,
        2.2600374357186115,
        1.8552368695698946,
        1.5907387920139096,
        1.2054910179915435,
        0.9559449618749212,
        0.774652647373021,
        0.3753695661970037,
        0.08911447092472628,
        -0.1348863702867721,
        -0.3670582186498573,
        -0.6137641892537196,
        -1.0150793946671626,
        -1.2475543309149588,
        -1.5753724888976783,
        -1.8787956832767878,
        -2.273154770477615,
        -2.6635696392132306,
        -3.0227107805696622
      ],
      "race_count": 143163
    },
    "temp_low|laps_short|pit_low": {
      "weights": [
        0.0,
        0.0,
        0.0,
        0.0,
        -0.28626408207786985,
        -0.08730284005731603,
        0.3735669221352019,
        -0.0036905123761656407,
        0.322305081764957,
        -0.22182607996742348,
        -0.1004790017975464,
        0.9465530041510211,
        -0.4147387707597629,
        -0.37107993009458146,
        -2.165354814689431,
        -0.3336776055766633,
        -0.14843212796737562,
        0.3385411248037512,
        0.14261456625570296,
        -0.4811556910594606,
        -0.0036905123761656407,
        1.5888180596525974,
        1.5329345510223737,
        1.3015679318293747,
        1.1488336962096615,
        0.87992771890209,
        0.6669874499777451,
        0.5593745256191486,
        0.42038269399260053,
        0.24889640308427394,
        0.01297293653791369,
        0.03929138891350062,
        -0.3782380817069378,
        -0.32084544267593074,
        -0.6911545704626376,
        -0.6790404074507739,
        -0.973099250332765,
        -1.0536257192334595,
        -1.2171645377182498,
        -1.5056875510040162,
        -1.5811317951564847
      ],
      "race_count": 6921
    },
    "temp_high|laps_long|pit_low": {
      "weights": [
        0.0,
        0.0,
        0.0,
        0.0,
        -0.029899935564765508,
        -0.10508008703127304,
        0.13498002259602357,
        -0.0013930773592299918,
        -0.015299369860799158,
        0.042021605543192196,
        -0.02672223568239267,
        -0.413321800936116,
        0.3565551743322959,
        -0.011297220209000512,
        -11.115586929710085,
        -2.894099711478297,
        -1.028150966745842,
        0.033096635979699744,
        0.10562359784290556,
        -0.13872023382261292,
        -0.0013930773592299918,
        1.329328965036442,
        1.2194618845001672,
        1.0238337890418405,
        0.7503530653101614,
        0.704405406116118,
        0.6786951683254598,
        0.38982588841512567,
        0.22655161221988443,
        0.1156223846444433,
        0.09091570263938421,
        -0.15618941411980677,
        -0.010352167094076983,
        -0.3691547357137428,
        -0.4147501807404159,
        -0.6923178663537173,
        -0.7243314116550839,
        -0.9578801867620359,
        -0.9608928604313351,
        -1.1892505913308775,
        -1.0538744520478547
      ],
      "race_count": 8847
    },
    "temp_mid|laps_medium|pit_low": {
      "weights": [
        0.0,
        0.0,
        0.0,
        0.0,
        -0.1542403761571415,
        0.06341937500138865,
        0.09082100115574285,
        -0.001520671756213259,
        0.137759158146466,
        -0.13470675348912323,
        -0.003052404657347063,
        0.20273814396499376,
        -0.43936553148485274,
        0.11889704811596115,
        -8.813705530625663,
        -2.680897610935615,
        -1.3271155316431034,
        0.17376271258217615,
        -0.07854983054103454,
        -0.09521288204112954,
        -0.001520671756213259,
        2.1602143061842116,
        1.8712978417245165,
        1.657932222611085,
        1.3839487730168492,
        1.146645387600226,
        0.911081442003218,
        0.7553638773807073,
        0.551980073304466,
        0.19291010282172216,
        0.09928017682262055,
        -0.11270748259972738,
        -0.31525738796347336,
        -0.5266722976392424,
        -0.6561100362555499,
        -0.9929990125902062,
        -1.1658646109558166,
        -1.3679297161514261,
        -1.6419013878362616,
        -1.8264804556884007,
        -2.1247318157894792
      ],
      "race_count": 62424
    },
    "temp_high|laps_medium|pit_low": {
      "weights": [
        0.0,
        0.0,
        0.0,
        0.0,
        -0.058344995143426934,
        0.010587702584414741,
        0.0477572925590096,
        -0.004033033262742518,
        0.08214924315245514,
        -0.01875844865558266,
        -0.06339079449687607,
        0.04168077399257846,
        0.2759715230790467,
        -0.14863973554128643,
        -7.461411253075758,
        -1.7209157390784158,
        -0.6270085794031047,
        0.056940787298976295,
        0.020302871218103827,
        -0.07724365851707729,
        -0.004033033262742518,
        1.3177884515425244,
        1.117654508570833,
        0.8726137425031052,
        0.8412209738244606,
        0.7749870040850156,
        0.6597701742656571,
        0.2763158584561805,
        0.5141929090781004,
        0.06636238835541766,
        -0.030621704301144363,
        -0.0026138986795966,
        -0.18714662461205245,
        -0.3346807185190759,
        -0.5217072141298656,
        -0.5002967837944601,
        -0.7261553728039757,
        -0.7482742318332101,
        -1.1100480101745809,
        -0.9997171701477652,
        -1.2796442816856628
      ],
      "race_count": 9621
    },
    "temp_high|laps_short|pit_low": {
      "weights": [
        0.0,
        0.0,
        0.0,
        0.0,
        -0.14653897856933124,
        -0.1106800401867392,
        0.25721901875606484,
        -0.0037538274652975713,
        0.48596848887748556,
        -0.3891062080875966,
        -0.09686228078988188,
        1.2803496253411224,
        -0.8081338363199363,
        -0.3190634621667647,
        -2.9558494215890434,
        -0.6368830934112442,
        -0.15374405727631416,
        0.26640611297816974,
        0.012182290425829296,
        -0.2785884034039828,
        -0.0037538274652975713,
        1.5060721886245965,
        1.5726899940439858,
        1.2084106685679987,
        1.0681162352638476,
        0.7929268889998813,
        0.6857138798916024,
        0.5223299548671476,
        0.5250280383787249,
        0.07905473879094384,
        -0.10741581390429886,
        0.04634254197306212,
        -0.20093744486653178,
        -0.4035708823169604,
        -0.6399350228812798,
        -0.5683183958932322,
        -0.9082646590707402,
        -0.9380430275529249,
        -1.1936352782480544,
        -1.451404823496412,
        -1.5951597811711857
      ],
      "race_count": 6804
    },
    "temp_low|laps_medium|pit_low": {
      "weights": [
        0.0,
        0.0,
        0.0,
        0.0,
        -0.09149005965482164,
        -0.02376064809559555,
        0.11525070775041472,
        -0.004376601806985832,
        0.08137800140488495,
        -0.020583712461132265,
        -0.06079428894375561,
        0.1263739317904416,
        0.24232957845706807,
        -0.14236722681184533,
        -6.304116048758929,
        -1.4089177900104242,
        -0.5145679293207046,
        0.12006840812454707,
        0.019608393522671453,
        -0.1396768016472083,
        -0.004376601806985832,
        1.4435402957541539,
        1.1752209822881576,
        0.9895173144589048,
        0.8210635122186,
        0.7975279829431852,
        0.5052937227593308,
        0.5004739261515375,
        0.2972720124218046,
        0.38952892838623,
        0.0025796525238047574,
        -0.07822849352057248,
        -0.28766647557148417,
        -0.19641917266575357,
        -0.3643060898616466,
        -0.5032915749158989,
        -0.8338522905936697,
        -0.8827187148814826,
        -1.1703993515838778,
        -1.263652686135354,
        -1.3414834801758873
      ],
      "race_count": 10278
    },
    "temp_mid|laps_long|pit_low": {
      "weights": [
        0.0,
        0.0,
        0.0,
        0.0,
        -0.0008065208832886089,
        -0.1432514518564003,
        0.14405797273968846,
        -0.0015979026769766282,
        -0.01008238503783311,
        0.03667830860950961,
        -0.02659592357167517,
        -0.3735311923405359,
        0.33121437535281023,
        0.003775477368028341,
        -10.763439875613942,
        -2.842108194593602,
        -1.04778122294407,
        0.0029263260956964876,
        0.13134939144846136,
        -0.13427571754416084,
        -0.0015979026769766282,
        1.354416868068334,
        1.074096341862183,
        1.0808319239186546,
        0.8299093286967256,
        0.5998732651437853,
        0.5955529181806815,
        0.5610924084843013,
        0.4081879851756843,
        0.16101233580526575,
        -0.06953061682149414,
        -0.00415878961733951,
        -0.27439421703822187,
        -0.28968295323352494,
        -0.3064123757006005,
        -0.5718452410242886,
        -0.7778164068284298,
        -0.9148247196745336,
        -1.0286153419220245,
        -1.2001859306103106,
        -1.2275067828649289
      ],
      "race_count": 9198
    },
    "temp_mid|laps_medium|pit_high": {
      "weights": [
        0.0,
        0.0,
        0.0,
        0.0,
        0.03986368986987745,
        -0.06135138198617714,
        0.021487692116300125,
        2.7067219671602272e-05,
        0.005391459424627617,
        0.0020089984509279717,
        -0.007400457875555555,
        -0.06274995913968526,
        0.023758113505504143,
        -0.024095602398042384,
        -2.675810342186236,
        -0.3088732191858587,
        -0.10790457369831516,
        -0.03858857596654083,
        0.041037433849506345,
        -0.002448857882965434,
        2.7067219671602272e-05,
        0.014336810555910722,
        0.11932056383964132,
        0.05322638732402201,
        -0.03337336428573442,
        0.06798311954660137,
        0.109118095232935,
        0.028118581560832204,
        -0.08666636778801501,
        0.019541611379182956,
        -0.01949001507466007,
        6.776627730995618e-05,
        -0.09155549988593625,
        0.08579979976516548,
        0.054234949747837026,
        -0.053118339139802226,
        -0.012338251635461364,
        -0.13826276810240307,
        -0.033890646358900336,
        -0.04895063751095515,
        -0.034101795447570214
      ],
      "race_count": 396
    },
    "temp_low|laps_medium|pit_high": {
      "weights": [
        0.0,
        0.0,
        0.0,
        0.0,
        0.09448001724452335,
        -0.0024640020790082117,
        -0.09201601516551458,
        -4.148701978170517e-05,
        0.0068887567402047675,
        0.0028444270861575117,
        -0.009733183826362185,
        -0.05011305910631359,
        0.03227062132739666,
        -0.042218797280737484,
        -2.6850129148042186,
        -0.3510612290744374,
        -0.05375703578935536,
        -0.09339236290181653,
        0.00214890512727038,
        0.09124345777454493,
        -4.148701978170517e-05,
        0.03354852513123983,
        0.11860735612252164,
        0.08623920198553699,
        0.03372525946480628,
        0.014847416538673263,
        0.033845647156009795,
        -0.03807847297389249,
        -0.05756894795326361,
        -0.08599021963665487,
        0.0533112507181021,
        -0.014300644934978327,
        0.03330109874753826,
        -0.0385364328805548,
        -0.03517837406510165,
        0.018484554618692393,
        -0.03340294869222756,
        0.033717701029896595,
        0.03867066111230421,
        -0.06295726433039482,
        -0.13228536715825323
      ],
      "race_count": 450
    },
    "temp_low|laps_long|pit_high": {
      "weights": [
        0.0,
        0.0,
        0.0,
        0.0,
        -0.05773492218947463,
        -0.00045642621879300017,
        0.058191348408266765,
        6.066705452719477e-05,
        -0.0002708450606543154,
        0.002998674734165881,
        -0.002727829673511572,
        -0.11410336345177444,
        0.020111013884379456,
        -0.0019245896023706419,
        -4.012161085923303,
        -0.992112860406622,
        -0.317244816778993,
        0.05846925565683124,
        0.0003550738110376364,
        -0.058824329467869016,
        6.066705452719477e-05,
        0.1321465768152106,
        0.07195224363480665,
        -0.019723668799656754,
        -0.053494562661749054,
        0.00010429980563370848,
        0.0988816751788609,
        0.05278034556578079,
        0.11792159078613529,
        0.0982925825564242,
        0.03347393179349492,
        0.013356902568784655,
        -0.08674852466976318,
        -0.020099745608135638,
        -0.0998587554512542,
        -0.022512194392049198,
        0.039951802443121374,
        -0.1427746567062715,
        -0.014069092657916647,
        -0.0667087932224461,
        -0.13287195697901386
      ],
      "race_count": 486
    },
    "temp_high|laps_short|pit_high": {
      "weights": [
        0.0,
        0.0,
        0.0,
        0.0,
        0.08002278418987394,
        -0.0002410222705237716,
        -0.0797817619193498,
        0.00012655236489498187,
        0.03125458718309878,
        -0.019787194917716053,
        -0.01146739226538275,
        0.01777882645350933,
        -0.020875963279200518,
        -0.050123417952609044,
        -1.7886968959572982,
        -0.06164219366733621,
        -0.028948750247116784,
        -0.029608053486114047,
        -0.02417564388652029,
        0.05378369737263452,
        0.00012655236489498187,
        0.09872535165116152,
        0.17245912927349394,
        0.06775637148360152,
        0.06169161047717907,
        0.07924459527893123,
        0.054376188851211905,
        -0.03303601175010259,
        0.1643714939325573,
        0.05188073125120663,
        -0.15560272401776845,
        0.021226165444205546,
        -0.13273575864150972,
        -0.0029737379811570733,
        -0.05866218279987223,
        -0.03342080981095112,
        -0.019381040871752398,
        -0.12169263841039728,
        -0.1516737931369495,
        -0.04318197937019238,
        -0.019370960852894532
      ],
      "race_count": 396
    },
    "temp_high|laps_long|pit_high": {
      "weights": [
        0.0,
        0.0,
        0.0,
        0.0,
        0.000409622435614277,
        0.0005310914102893016,
        -0.0009407138459035767,
        9.146642220144628e-05,
        -0.005259671604497831,
        0.004553100397838924,
        0.0007065712066588987,
        -0.1341992024852349,
        0.02562911086531896,
        0.021341741656179344,
        -3.7305227624717205,
        -0.8559129044547392,
        -0.10161954913899039,
        -0.00022303979211443184,
        -0.0003562653360136012,
        0.000579305128128032,
        9.146642220144628e-05,
        0.06814572499982736,
        0.07069603806411832,
        0.033713361677362864,
        0.1463667053974995,
        0.0006162727033791177,
        0.11391949721162853,
        0.055424484187912584,
        -0.034101575565274794,
        -0.0997958627191012,
        0.0002897946779708627,
        -0.06716698317732964,
        0.0334552967604963,
        0.033371693034671926,
        0.05296305529019115,
        0.012980020950293686,
        -0.16705843026173334,
        -0.03359937997689869,
        -0.13541287854271425,
        -0.013473227648863023,
        -0.07133360706343402
      ],
      "race_count": 405
    },
    "temp_low|laps_short|pit_high": {
      "weights": [
        0.0,
        0.0,
        0.0,
        0.0,
        0.04374960878190465,
        -3.725432548983363e-05,
        -0.043712354456414894,
        1.7437686331294097e-05,
        0.02231594869675155,
        -0.010193564634220754,
        -0.01212238406253084,
        0.021890487693850304,
        -0.005704561951581856,
        -0.0499791491847088,
        -1.2450471921511084,
        0.02069636880786521,
        0.015111432035844582,
        -0.039706154086339984,
        -0.0025682130507469814,
        0.04227436713708738,
        1.7437686331294097e-05,
        0.03377489839129119,
        0.19638417382884044,
        0.1238644027049911,
        0.10046591090947297,
        0.17074456448113035,
        0.06565300390024618,
        0.0808600808775519,
        -0.09977454850538137,
        0.057670906815255545,
        -0.01974949516094246,
        0.010062279553903044,
        -0.0870152699657171,
        0.10604714121274403,
        -0.013546104533217562,
        -0.12048736545939058,
        -0.09747195160690872,
        -0.08092120866991809,
        -0.125287481242537,
        -0.13526367035196732,
        -0.1660102671794469
      ],
      "race_count": 306
    },
    "temp_high|laps_medium|pit_high": {
      "weights": [
        0.0,
        0.0,
        0.0,
        0.0,
        0.020580115261966486,
        0.111135404686591,
        -0.13171551994855943,
        2.2591077602345507e-05,
        0.005825722628431021,
        0.007982442837809477,
        -0.013808165466240493,
        -0.08360588917144347,
        0.05416846120856628,
        -0.04861432985632727,
        -3.2612248514267312,
        -0.5372692254336865,
        -0.09528924457422565,
        -0.037638020551039826,
        -0.0919447937468933,
        0.12958281429793334,
        2.2591077602345507e-05,
        0.03875879416988246,
        -0.018868373129352408,
        0.030039413567358293,
        0.018751707293386984,
        0.04918469237850855,
        0.06459065542687817,
        0.06684269428622318,
        0.11653869046057809,
        0.06898680732232758,
        0.03454083239362333,
        0.002974035417363175,
        -0.0021249574250264184,
        0.03326594279126671,
        0.004334491938222886,
        -0.014234553475744045,
        -0.05459457335914042,
        -0.10059925868591936,
        -0.2002465895725498,
        -0.10503443928281339,
        -0.033106012515076055
      ],
      "race_count": 549
    },
    "temp_mid|laps_long|pit_high": {
      "weights": [
        0.0,
        0.0,
        0.0,
        0.0,
        0.0004091566576592898,
        -0.03798862699780468,
        0.03757947034014539,
        9.47409524136707e-05,
        0.0009180926651115228,
        0.003276474993764045,
        -0.004194567658875533,
        -0.09197362731386073,
        0.015720115084006794,
        -0.011072650964215615,
        -3.5652370883340168,
        -0.9160981281819242,
        -0.14388652579988537,
        0.000391658934382683,
        0.03810099271429953,
        -0.0384926516486825,
        9.47409524136707e-05,
        -2.1899872574752204e-05,
        -0.00021638900858795315,
        0.014726629452027263,
        -0.019957915768748606,
        0.03432936283354579,
        0.03434082345769123,
        0.034107232408755836,
        0.00016704941285936587,
        -0.034422779165954584,
        0.0003327237800911853,
        -0.0008573452798528778,
        -0.014029119035661534,
        8.275756457744386e-05,
        -6.042385675468805e-06,
        -0.01932325676071984,
        0.07363456591247768,
        0.0001648520743265036,
        -0.067725751340023,
        0.018983389721691033,
        -0.054308888000243874
      ],
      "race_count": 387
    }
  },
  "inference": {
    "alpha_seconds": 0.16,
    "top_k": 12,
    "max_swaps": 8,
    "max_gap_seconds": 0.24,
    "min_margin": 0.05
  },
  "regime_inference": {
    "temp_low|laps_long|pit_low": {
      "alpha_seconds": 0.14400000000000002,
      "top_k": 12,
      "max_swaps": 8,
      "max_gap_seconds": 0.24,
      "min_margin": 0.05
    },
    "temp_mid|laps_short|pit_low": {
      "alpha_seconds": 0.184,
      "top_k": 12,
      "max_swaps": 8,
      "max_gap_seconds": 0.24,
      "min_margin": 0.05
    },
    "temp_low|laps_short|pit_low": {
      "alpha_seconds": 0.184,
      "top_k": 12,
      "max_swaps": 8,
      "max_gap_seconds": 0.24,
      "min_margin": 0.05
    },
    "temp_high|laps_long|pit_low": {
      "alpha_seconds": 0.14400000000000002,
      "top_k": 12,
      "max_swaps": 8,
      "max_gap_seconds": 0.24,
      "min_margin": 0.05
    },
    "temp_mid|laps_medium|pit_low": {
      "alpha_seconds": 0.16,
      "top_k": 12,
      "max_swaps": 8,
      "max_gap_seconds": 0.24,
      "min_margin": 0.05
    },
    "temp_high|laps_medium|pit_low": {
      "alpha_seconds": 0.16,
      "top_k": 12,
      "max_swaps": 8,
      "max_gap_seconds": 0.24,
      "min_margin": 0.05
    },
    "temp_high|laps_short|pit_low": {
      "alpha_seconds": 0.184,
      "top_k": 12,
      "max_swaps": 8,
      "max_gap_seconds": 0.24,
      "min_margin": 0.05
    },
    "temp_low|laps_medium|pit_low": {
      "alpha_seconds": 0.16,
      "top_k": 12,
      "max_swaps": 8,
      "max_gap_seconds": 0.24,
      "min_margin": 0.05
    },
    "temp_mid|laps_long|pit_low": {
      "alpha_seconds": 0.14400000000000002,
      "top_k": 12,
      "max_swaps": 8,
      "max_gap_seconds": 0.24,
      "min_margin": 0.05
    },
    "temp_mid|laps_medium|pit_high": {
      "alpha_seconds": 0.152,
      "top_k": 12,
      "max_swaps": 8,
      "max_gap_seconds": 0.24,
      "min_margin": 0.05
    },
    "temp_low|laps_medium|pit_high": {
      "alpha_seconds": 0.152,
      "top_k": 12,
      "max_swaps": 8,
      "max_gap_seconds": 0.24,
      "min_margin": 0.05
    },
    "temp_low|laps_long|pit_high": {
      "alpha_seconds": 0.1368,
      "top_k": 12,
      "max_swaps": 8,
      "max_gap_seconds": 0.24,
      "min_margin": 0.05
    },
    "temp_high|laps_short|pit_high": {
      "alpha_seconds": 0.17479999999999998,
      "top_k": 12,
      "max_swaps": 8,
      "max_gap_seconds": 0.24,
      "min_margin": 0.05
    },
    "temp_high|laps_long|pit_high": {
      "alpha_seconds": 0.1368,
      "top_k": 12,
      "max_swaps": 8,
      "max_gap_seconds": 0.24,
      "min_margin": 0.05
    },
    "temp_low|laps_short|pit_high": {
      "alpha_seconds": 0.17479999999999998,
      "top_k": 12,
      "max_swaps": 8,
      "max_gap_seconds": 0.24,
      "min_margin": 0.05
    },
    "temp_high|laps_medium|pit_high": {
      "alpha_seconds": 0.152,
      "top_k": 12,
      "max_swaps": 8,
      "max_gap_seconds": 0.24,
      "min_margin": 0.05
    },
    "temp_mid|laps_long|pit_high": {
      "alpha_seconds": 0.1368,
      "top_k": 12,
      "max_swaps": 8,
      "max_gap_seconds": 0.24,
      "min_margin": 0.05
    }
  },
  "training_info": {
    "epochs": 9,
    "lr": 0.0032,
    "l2": 0.00035,
    "clip_norm": 1.8,
    "normalize_diff": true,
    "distance_weight_power": 1.25,
    "adjacent_multiplier": 3.5,
    "max_rank_distance": 0,
    "topk_train_focus": 0,
    "topk_train_multiplier": 1.0,
    "pairs_per_race": 150,
    "seed": 2026,
    "total_races": 30000,
    "historical_files": 30,
    "min_regime_races": 200
  }
}